digraph Tree {
node [shape=box, style="filled, rounded", color="black", fontname=helvetica] ;
edge [fontname=helvetica] ;
0 [label=<chlorides &le; 0.459<br/>gini = 0.339<br/>samples = 4791<br/>value = [1036, 3755]<br/>class = 0>, fillcolor="#399de5b9"] ;
1 [label=<totalSulfurDioxide &le; -0.906<br/>gini = 0.061<br/>samples = 3640<br/>value = [115, 3525]<br/>class = 0>, fillcolor="#399de5f7"] ;
0 -> 1 [labeldistance=2.5, labelangle=45, headlabel="True"] ;
2 [label=<gini = 0.492<br/>samples = 208<br/>value = [91, 117]<br/>class = 0>, fillcolor="#399de539"] ;
1 -> 2 ;
3 [label=<pH &le; 1.415<br/>gini = 0.014<br/>samples = 3432<br/>value = [24, 3408]<br/>class = 0>, fillcolor="#399de5fd"] ;
1 -> 3 ;
4 [label=<sulphates &le; 1.227<br/>gini = 0.008<br/>samples = 3227<br/>value = [13, 3214]<br/>class = 0>, fillcolor="#399de5fe"] ;
3 -> 4 ;
5 [label=<alcohol &le; 0.811<br/>gini = 0.005<br/>samples = 2999<br/>value = [8, 2991]<br/>class = 0>, fillcolor="#399de5fe"] ;
4 -> 5 ;
6 [label=<citricAcid &le; -0.737<br/>gini = 0.002<br/>samples = 2272<br/>value = [2, 2270]<br/>class = 0>, fillcolor="#399de5ff"] ;
5 -> 6 ;
7 [label=<gini = 0.015<br/>samples = 262<br/>value = [2, 260]<br/>class = 0>, fillcolor="#399de5fd"] ;
6 -> 7 ;
8 [label=<gini = 0.0<br/>samples = 2010<br/>value = [0, 2010]<br/>class = 0>, fillcolor="#399de5ff"] ;
6 -> 8 ;
9 [label=<freeSulfurDioxide &le; 0.293<br/>gini = 0.016<br/>samples = 727<br/>value = [6, 721]<br/>class = 0>, fillcolor="#399de5fd"] ;
5 -> 9 ;
10 [label=<residualSugar &le; -0.328<br/>gini = 0.004<br/>samples = 464<br/>value = [1, 463]<br/>class = 0>, fillcolor="#399de5fe"] ;
9 -> 10 ;
11 [label=<gini = 0.0<br/>samples = 264<br/>value = [0, 264]<br/>class = 0>, fillcolor="#399de5ff"] ;
10 -> 11 ;
12 [label=<gini = 0.01<br/>samples = 200<br/>value = [1, 199]<br/>class = 0>, fillcolor="#399de5fe"] ;
10 -> 12 ;
13 [label=<gini = 0.037<br/>samples = 263<br/>value = [5, 258]<br/>class = 0>, fillcolor="#399de5fa"] ;
9 -> 13 ;
14 [label=<gini = 0.043<br/>samples = 228<br/>value = [5, 223]<br/>class = 0>, fillcolor="#399de5f9"] ;
4 -> 14 ;
15 [label=<gini = 0.102<br/>samples = 205<br/>value = [11, 194]<br/>class = 0>, fillcolor="#399de5f1"] ;
3 -> 15 ;
16 [label=<totalSulfurDioxide &le; -0.081<br/>gini = 0.32<br/>samples = 1151<br/>value = [921, 230]<br/>class = 1>, fillcolor="#e58139bf"] ;
0 -> 16 [labeldistance=2.5, labelangle=-45, headlabel="False"] ;
17 [label=<totalSulfurDioxide &le; -0.942<br/>gini = 0.085<br/>samples = 917<br/>value = [876, 41]<br/>class = 1>, fillcolor="#e58139f3"] ;
16 -> 17 ;
18 [label=<density &le; 0.389<br/>gini = 0.019<br/>samples = 714<br/>value = [707, 7]<br/>class = 1>, fillcolor="#e58139fc"] ;
17 -> 18 ;
19 [label=<gini = 0.058<br/>samples = 200<br/>value = [194, 6]<br/>class = 1>, fillcolor="#e58139f7"] ;
18 -> 19 ;
20 [label=<sulphates &le; 0.598<br/>gini = 0.004<br/>samples = 514<br/>value = [513, 1]<br/>class = 1>, fillcolor="#e58139ff"] ;
18 -> 20 ;
21 [label=<gini = 0.01<br/>samples = 201<br/>value = [200, 1]<br/>class = 1>, fillcolor="#e58139fe"] ;
20 -> 21 ;
22 [label=<gini = 0.0<br/>samples = 313<br/>value = [313, 0]<br/>class = 1>, fillcolor="#e58139ff"] ;
20 -> 22 ;
23 [label=<gini = 0.279<br/>samples = 203<br/>value = [169, 34]<br/>class = 1>, fillcolor="#e58139cc"] ;
17 -> 23 ;
24 [label=<gini = 0.311<br/>samples = 234<br/>value = [45, 189]<br/>class = 0>, fillcolor="#399de5c2"] ;
16 -> 24 ;
}